FANN_FLO_2.0
num_layers=3
learning_rate=0.700000
connection_rate=1.000000
shortcut_connections=0
learning_momentum=0.000000
training_algorithm=2
train_error_function=1
train_stop_function=0
cascade_output_change_fraction=0.010000
quickprop_decay=-0.000100
quickprop_mu=1.750000
rprop_increase_factor=1.200000
rprop_decrease_factor=0.500000
rprop_delta_min=0.000000
rprop_delta_max=50.000000
rprop_delta_zero=0.500000
cascade_output_stagnation_epochs=12
cascade_candidate_change_fraction=0.010000
cascade_candidate_stagnation_epochs=12
cascade_max_out_epochs=150
cascade_max_cand_epochs=150
cascade_num_candidate_groups=2
bit_fail_limit=3.49999999999999977796e-01
cascade_candidate_limit=1.00000000000000000000e+03
cascade_weight_multiplier=4.00000000000000022204e-01
cascade_activation_functions_count=6
cascade_activation_functions=3 5 7 8 10 11 
cascade_activation_steepnesses_count=4
cascade_activation_steepnesses=2.50000000000000000000e-01 5.00000000000000000000e-01 7.50000000000000000000e-01 1.00000000000000000000e+00 
layer_sizes=4 17 6 
neurons (num_inputs, activation_function, activation_steepness)=(0, 0, 0.00000000000000000000e+00) (0, 0, 0.00000000000000000000e+00) (0, 0, 0.00000000000000000000e+00) (0, 0, 0.00000000000000000000e+00) (4, 4, 5.00000000000000000000e-01) (4, 4, 5.00000000000000000000e-01) (4, 4, 5.00000000000000000000e-01) (4, 4, 5.00000000000000000000e-01) (4, 4, 5.00000000000000000000e-01) (4, 4, 5.00000000000000000000e-01) (4, 4, 5.00000000000000000000e-01) (4, 4, 5.00000000000000000000e-01) (4, 4, 5.00000000000000000000e-01) (4, 4, 5.00000000000000000000e-01) (4, 4, 5.00000000000000000000e-01) (4, 4, 5.00000000000000000000e-01) (4, 4, 5.00000000000000000000e-01) (4, 4, 5.00000000000000000000e-01) (4, 4, 5.00000000000000000000e-01) (4, 4, 5.00000000000000000000e-01) (0, 0, 0.00000000000000000000e+00) (17, 4, 5.00000000000000000000e-01) (17, 4, 5.00000000000000000000e-01) (17, 4, 5.00000000000000000000e-01) (17, 4, 5.00000000000000000000e-01) (17, 4, 5.00000000000000000000e-01) (0, 0, 0.00000000000000000000e+00) 
connections (connected_to_neuron, weight)=(0, 5.13801317204878937872e+00) (1, 1.74332540911974942510e+00) (2, 2.60859865964945702999e-01) (3, 4.42057234717637026478e-01) (0, 3.55646511722674040357e+03) (1, -2.95908647032237015484e-01) (2, 1.27583073875241614914e+00) (3, -1.23513988339946600981e+00) (0, -7.54963358154505570496e+00) (1, 2.29677665631508842736e+00) (2, 1.59623268144897179077e+00) (3, -2.61702580072074031392e+00) (0, -1.24228630758877841345e+02) (1, 3.52865914600428043357e-01) (2, -1.74884813731629984446e+00) (3, 1.94906863326516099910e+00) (0, 5.23046681068160612682e+00) (1, 6.57384706065951945675e+02) (2, 5.57087781445808445824e+02) (3, -3.99010110234631332204e+00) (0, -1.79408889677800829077e+02) (1, 5.44381888780301026465e-01) (2, -1.86186287962577745603e+00) (3, 2.74567043429934898313e+00) (0, 2.95659003977127485996e+03) (1, -3.34345461270029509215e-01) (2, 1.66540023481306742603e+00) (3, -2.29911420014307088522e+00) (0, 4.53187610444627625839e+03) (1, -1.79416167741061684637e+02) (2, 1.64699791733102984814e+00) (3, -1.71762069953024498759e+00) (0, 2.12339173269158834501e+02) (1, -2.14832581857119720325e+02) (2, -6.18525682879874499909e-02) (3, 4.48055004895463415693e+00) (0, 3.55662161136364011327e+03) (1, -1.77678454081662204334e-02) (2, 2.30844281565463882444e+00) (3, -3.46710606979035951269e+00) (0, -1.75692002892953382798e+03) (1, -7.90938354533682330683e-02) (2, 6.46139789183383417281e+00) (3, -1.63901041543902548092e+00) (0, 2.90660906036188362123e+03) (1, -1.60495257510581268434e+00) (2, 2.02913322514398064556e+00) (3, -2.34115907874184436821e+00) (0, -4.07654066531816905439e+00) (1, 1.05771413577830048780e+03) (2, -2.76688144814823955286e-01) (3, -4.56165232208272364289e+00) (0, 3.80658680315149194939e+03) (1, -8.77353421905988750673e-01) (2, 9.85597751056835558181e-01) (3, -4.67170132303879048763e-01) (0, 1.00774913837720430365e+03) (1, -6.19625964162772646660e+00) (2, -1.34711693386724951083e-01) (3, 9.29001543516908445675e-01) (0, -1.48612140282730365470e+02) (1, 5.39832989516813555042e+00) (2, -4.56247246701956612469e+02) (3, 3.33535405546672958366e+00) (4, -3.49973383448514474559e-01) (5, 6.50580067673989348442e-01) (6, -5.31485981716763977722e-01) (7, -9.01138757951280311431e+00) (8, -8.32174503772030588200e-02) (9, -9.13994748579593974114e+00) (10, 4.86681610468053027496e-01) (11, 7.32629684685043258696e+00) (12, 1.33256367878256398729e-01) (13, 2.08097418017658197797e+00) (14, -7.31682814051672125721e-01) (15, 3.03849470152039735638e+00) (16, -3.06425457144206658811e+00) (17, 4.86205020221687267412e-01) (18, 5.22798620260378155145e-01) (19, -3.18449143348072905013e+00) (20, -5.47353880245399881943e-01) (4, 3.48966532808279383815e-01) (5, 7.46807312351086882707e-01) (6, 3.89551480692940810258e+00) (7, -1.74468501184731508147e+01) (8, 1.01222254931240640552e+00) (9, -6.61460690714850496619e+00) (10, 9.33419999500519126379e-01) (11, -1.75321105470086480160e+00) (12, -9.50621471749238011739e+00) (13, 7.25543869186531242832e-01) (14, 3.94878941643650493987e+00) (15, 3.77204520995087555502e-01) (16, 1.04385096430092416675e+00) (17, 5.96985209906875230468e-02) (18, -1.16138643692569676347e+00) (19, -6.24400128449028812838e+00) (20, 2.18282859932510842071e-01) (4, -2.42923594565302609916e-02) (5, -3.29351421854766568398e-01) (6, -3.42756424705393802910e-01) (7, 3.11965984826282305420e+00) (8, 9.19456852777864153126e-01) (9, 4.95317615953972634202e+00) (10, -1.14061111529133474285e+00) (11, -2.12767881384088447527e-01) (12, 1.00219361023715292092e+00) (13, -9.19305813046831765689e+00) (14, 2.07265191916180935294e+00) (15, -2.59695508192524870950e+00) (16, -3.49294532311000105462e-01) (17, -8.15938834748601071745e-01) (18, 1.87455497750974892091e-01) (19, -1.35113814033531056680e+01) (20, 1.12097268281511133758e-01) (4, -4.14334418942773730077e-01) (5, -1.42256765053047851133e+00) (6, -5.05868525841317140390e-01) (7, 1.09503238509891032137e+00) (8, -3.60061332894392516213e-01) (9, 9.64828063186099038617e-01) (10, -1.35657115540902117878e+00) (11, -1.00419175062132026710e+01) (12, -6.88932320761814587229e+00) (13, -4.38636268601775913822e+00) (14, -2.08810328675916512253e+00) (15, -3.58801829698740082364e+00) (16, -5.97120113589245174457e-02) (17, -1.40351136403165965838e+00) (18, -2.46344157181121081734e+00) (19, 6.31019363458809312561e+00) (20, -4.02524744194195815972e-01) (4, -6.82017641828077558763e-01) (5, -1.02672716351067072615e+00) (6, -1.20912169965486171463e+00) (7, 3.56854496434305934471e+00) (8, -6.55561476394090458797e+00) (9, 8.55197768291965254583e-01) (10, -6.37576429254420484760e-01) (11, -4.02399754233170647844e-01) (12, 1.56405995716570300758e+00) (13, -8.17209519661804106860e-01) (14, -3.59286209281075796795e-01) (15, -5.72744711499580741454e-02) (16, -2.70310483011620128480e+00) (17, -1.14520183084394511219e+00) (18, 6.66828854707594120832e-01) (19, 1.90533013969885733907e+00) (20, -2.55244333689907787477e-01) 
